dense/kernel:0
(10, 10)
[[-0.09240258  0.2036218  -0.17861304  0.06396371 -0.15573925  0.39558184
   0.33645684 -0.10861555 -0.518587    0.40382534]
 [ 0.4590861   0.18710738  0.4083407  -0.31065738 -0.26972038  0.05498982
   0.34207958 -0.49530774 -0.15326044 -0.20956653]
 [-0.12254196 -0.37693876 -0.0828017   0.10411942 -0.43971545  0.04004109
   0.09783169 -0.35164022 -0.5162394  -0.34744054]
 [ 0.31544352 -0.49007067  0.1979534  -0.2391153  -0.48672736  0.11028858
  -0.00134253 -0.04514283  0.53448296  0.14045191]
 [-0.4967157   0.11824155 -0.06434831 -0.38465464 -0.01813608  0.30714488
   0.0690676   0.54627657 -0.33825007  0.3593434 ]
 [-0.11250846 -0.45872945 -0.31183255  0.45916724 -0.0737353  -0.10985989
   0.48876762 -0.14115971 -0.3534469  -0.34692237]
 [ 0.39644352 -0.44223604 -0.3790886  -0.3345444  -0.43060398 -0.04422648
   0.23550285 -0.534453    0.18522352  0.28725392]
 [ 0.29712212 -0.06737569  0.45550728 -0.46302292 -0.15496251  0.2737637
   0.23184128  0.13761598  0.42356575 -0.20704073]
 [ 0.52289146 -0.10264301  0.33044738 -0.03587377  0.4080397   0.32835582
  -0.10171743 -0.28984386 -0.48978597 -0.5104805 ]
 [-0.1937933  -0.5125339  -0.08657894  0.06605548  0.12841803 -0.06272049
  -0.11364105  0.075697    0.18093896 -0.24870196]]
dense/bias:0
(10,)
[ 3.3753413e-08  0.0000000e+00  9.7481642e-25  0.0000000e+00
  0.0000000e+00  1.2228473e-02 -1.2294932e-02  0.0000000e+00
  0.0000000e+00  0.0000000e+00]
