dense/kernel:0
(10, 10)
[[ 0.2536798  -0.30529666  0.3634674   0.13369942 -0.00876629 -0.35852635
   0.19182603 -0.16519442  0.29747748 -0.52320963]
 [ 0.49999738 -0.2857493  -0.24044651  0.47172606  0.1498307   0.44897997
   0.20453666 -0.53996855 -0.21264082 -0.12008527]
 [ 0.52991164  0.02579892  0.5165454   0.18697077  0.53091383  0.5292078
   0.33819234 -0.13874176  0.42364156 -0.08415955]
 [-0.4975456   0.41852075  0.48653185  0.19876903  0.43123108 -0.5378703
   0.2070491   0.34519184 -0.16687429  0.3126349 ]
 [ 0.20676684 -0.37089938 -0.2709433   0.04236144  0.15770632  0.3047518
   0.10700717  0.21756291 -0.4106548   0.33518976]
 [-0.47244647  0.40816545 -0.15939897 -0.01251525  0.38919592 -0.07998547
  -0.47404045 -0.00626403 -0.407364   -0.5203375 ]
 [-0.08962202 -0.22031307 -0.06498453 -0.47452217  0.10267854  0.02409071
  -0.05478298  0.04310107  0.01207215  0.2621748 ]
 [ 0.1450665   0.47379267  0.13334227  0.06956631 -0.32384786  0.00565428
   0.44620493 -0.12693092  0.05926114 -0.1986382 ]
 [ 0.5341263  -0.3005588  -0.5053811   0.2501315   0.35263062 -0.16082719
   0.41413295  0.10568464  0.5230135  -0.40076673]
 [-0.5035753   0.32052362 -0.5003065  -0.3451302   0.08817577 -0.28951702
   0.13097867  0.4795941   0.42312384 -0.24321586]]
dense/bias:0
(10,)
[2.5306334e-28 0.0000000e+00 0.0000000e+00 0.0000000e+00 0.0000000e+00
 0.0000000e+00 4.0557519e-05 0.0000000e+00 4.5708450e-27 0.0000000e+00]
