lstm/lstm_cell/kernel:0
(1, 1200)
[[-0.07816035 -0.00138642  0.00552591 ...  0.05308133 -0.02590727
   0.04468842]]
lstm/lstm_cell/recurrent_kernel:0
(300, 1200)
[[-0.01070054 -0.0030823  -0.01599527 ... -0.05790927 -0.01646989
  -0.03611396]
 [ 0.02185319  0.02289009 -0.00620138 ...  0.02975246  0.01020252
  -0.00611301]
 [-0.00968951 -0.03142212  0.02951488 ...  0.04844375 -0.01318995
  -0.02298381]
 ...
 [-0.01046053 -0.01281356 -0.015116   ...  0.03103833 -0.03380438
  -0.05606921]
 [-0.03030005 -0.00185359 -0.02924895 ...  0.00428942 -0.03459328
  -0.00080867]
 [-0.01602352 -0.02989838 -0.01927169 ...  0.02956227 -0.02917738
   0.03807624]]
lstm/lstm_cell/bias:0
(1200,)
[-0.02615258 -0.02180763 -0.03149597 ... -0.02700928 -0.04567102
 -0.03031601]
dense/kernel:0
(300, 1)
[[-0.06267214]
 [ 0.02576443]
 [-0.08956695]
 [-0.03557101]
 [-0.02592387]
 [ 0.00614478]
 [-0.01578201]
 [ 0.04917962]
 [ 0.09823304]
 [-0.03070896]
 [-0.00485846]
 [-0.11064071]
 [ 0.02859665]
 [-0.08456971]
 [-0.0420668 ]
 [ 0.03188372]
 [ 0.09104834]
 [-0.08827429]
 [ 0.03878468]
 [ 0.07785536]
 [-0.080267  ]
 [ 0.04849979]
 [-0.11527015]
 [ 0.07205875]
 [-0.09874927]
 [-0.02447269]
 [-0.06197532]
 [ 0.00291645]
 [ 0.09572042]
 [ 0.13434297]
 [ 0.05095251]
 [ 0.06909136]
 [-0.04341054]
 [ 0.09393822]
 [-0.01534288]
 [-0.12006669]
 [ 0.07119857]
 [ 0.07323451]
 [ 0.02413404]
 [ 0.03589497]
 [ 0.08175032]
 [ 0.09333965]
 [-0.01057148]
 [-0.094094  ]
 [ 0.01533109]
 [ 0.08034324]
 [ 0.0951827 ]
 [ 0.00357388]
 [-0.09978249]
 [ 0.08353338]
 [-0.09738195]
 [-0.02330001]
 [ 0.03960468]
 [-0.04583139]
 [-0.06229491]
 [-0.0083625 ]
 [-0.07015502]
 [-0.09538157]
 [-0.04882242]
 [ 0.09238283]
 [-0.11575554]
 [ 0.02124862]
 [-0.08780318]
 [-0.07647289]
 [-0.08641401]
 [ 0.02669622]
 [-0.05316371]
 [ 0.09837133]
 [ 0.05504422]
 [ 0.0105537 ]
 [ 0.01242748]
 [-0.06236538]
 [-0.01887574]
 [ 0.08101583]
 [-0.10245023]
 [ 0.06127489]
 [ 0.01873797]
 [ 0.05876762]
 [ 0.09124003]
 [ 0.01790065]
 [ 0.05807667]
 [ 0.06416504]
 [-0.08344963]
 [-0.09116168]
 [-0.08209457]
 [ 0.05525546]
 [-0.00167113]
 [ 0.05830436]
 [-0.04996138]
 [-0.06758181]
 [ 0.06412921]
 [ 0.06978249]
 [-0.05423651]
 [-0.1265859 ]
 [-0.02653009]
 [-0.07072882]
 [-0.05241863]
 [-0.09399875]
 [ 0.04926956]
 [ 0.05280828]
 [-0.10639127]
 [-0.10944256]
 [ 0.10141974]
 [ 0.06749337]
 [ 0.0211643 ]
 [-0.08614807]
 [ 0.03874206]
 [-0.09409852]
 [-0.09743896]
 [ 0.11700356]
 [-0.08289153]
 [ 0.06595644]
 [ 0.06510445]
 [-0.11267256]
 [ 0.01757131]
 [-0.08714531]
 [ 0.07076181]
 [ 0.0901585 ]
 [-0.00123947]
 [-0.09909601]
 [ 0.11452752]
 [ 0.06683382]
 [-0.05708373]
 [ 0.00562607]
 [-0.01271472]
 [-0.04398099]
 [ 0.01366274]
 [-0.10447668]
 [-0.02457939]
 [ 0.07806116]
 [ 0.13083366]
 [-0.10196549]
 [ 0.14732178]
 [-0.11434   ]
 [ 0.05274718]
 [ 0.00149103]
 [ 0.08030502]
 [-0.07544697]
 [ 0.09486251]
 [-0.04493651]
 [ 0.09362016]
 [-0.01657755]
 [-0.06331414]
 [-0.0297934 ]
 [-0.10892974]
 [ 0.0685851 ]
 [ 0.01702819]
 [-0.08390716]
 [-0.04965355]
 [ 0.06419849]
 [-0.11107564]
 [ 0.07115178]
 [ 0.05097754]
 [ 0.02898   ]
 [ 0.03774878]
 [-0.0975178 ]
 [-0.11322083]
 [ 0.02815263]
 [ 0.01604755]
 [ 0.11081117]
 [ 0.10140464]
 [ 0.05262203]
 [ 0.11305939]
 [ 0.05483603]
 [ 0.02028716]
 [-0.11933502]
 [-0.06404389]
 [-0.10920101]
 [-0.07769226]
 [ 0.02833772]
 [ 0.01772516]
 [-0.04387058]
 [-0.09488058]
 [ 0.0951523 ]
 [-0.05437652]
 [-0.09583016]
 [ 0.07083827]
 [-0.07125285]
 [-0.09109682]
 [ 0.09432761]
 [-0.0479894 ]
 [ 0.03255874]
 [ 0.04727004]
 [-0.0792169 ]
 [ 0.04395121]
 [-0.04080444]
 [ 0.06244944]
 [-0.12991226]
 [ 0.00261065]
 [ 0.13216126]
 [ 0.06931519]
 [ 0.09920476]
 [ 0.06066929]
 [-0.00016013]
 [-0.02823265]
 [-0.01370201]
 [ 0.07207775]
 [-0.08149783]
 [ 0.11737302]
 [-0.05223694]
 [ 0.03153766]
 [-0.04226441]
 [ 0.0930139 ]
 [ 0.09493861]
 [ 0.01064454]
 [-0.08643618]
 [ 0.08399616]
 [-0.10172726]
 [ 0.0467396 ]
 [-0.05451366]
 [ 0.11769909]
 [ 0.12062465]
 [-0.08473078]
 [ 0.02998677]
 [-0.03161289]
 [-0.00600341]
 [-0.08046345]
 [-0.07170491]
 [-0.08331537]
 [-0.00778657]
 [-0.04902742]
 [-0.04540398]
 [-0.02820378]
 [-0.01928473]
 [ 0.09980979]
 [ 0.10103261]
 [-0.03148648]
 [-0.04752762]
 [-0.12381852]
 [ 0.02613533]
 [ 0.10436804]
 [-0.05426968]
 [ 0.00824004]
 [-0.12649383]
 [ 0.06679621]
 [ 0.00577528]
 [ 0.10560459]
 [ 0.08128853]
 [-0.0129122 ]
 [ 0.0136107 ]
 [-0.05727549]
 [-0.02465482]
 [-0.03759924]
 [ 0.07206184]
 [ 0.12306916]
 [-0.00478325]
 [ 0.09905331]
 [ 0.11701958]
 [-0.11439312]
 [ 0.04662266]
 [ 0.11684871]
 [ 0.07944291]
 [ 0.12292974]
 [ 0.10035784]
 [ 0.10611711]
 [ 0.02646201]
 [-0.00113362]
 [-0.0113757 ]
 [-0.0577746 ]
 [-0.09667918]
 [ 0.07439245]
 [ 0.00492167]
 [-0.09055665]
 [ 0.01124656]
 [ 0.00453777]
 [-0.1027632 ]
 [ 0.08363932]
 [-0.06328501]
 [ 0.09225112]
 [-0.02419661]
 [ 0.01395714]
 [ 0.07029628]
 [-0.04052613]
 [-0.01737928]
 [ 0.12804718]
 [ 0.02264166]
 [ 0.06641772]
 [ 0.04272633]
 [ 0.0537641 ]
 [ 0.02562511]
 [-0.04448516]
 [-0.0712084 ]
 [-0.03317657]
 [ 0.02153257]
 [-0.07009885]
 [-0.05581019]
 [ 0.07904463]
 [-0.07516397]
 [ 0.09986287]
 [-0.08251823]
 [ 0.06675474]
 [-0.1252747 ]
 [-0.02515996]
 [ 0.05945896]
 [-0.0035157 ]
 [-0.00544783]
 [ 0.02671494]
 [ 0.03333336]
 [ 0.07097604]
 [-0.10243846]]
dense/bias:0
(1,)
[0.00239697]
